digraph Tree {
node [shape=box] ;
0 [label="T1_(t):goal <= 11.7794\nmse = 0.0013\nsamples = 9078\nvalue = 0.0052"] ;
1 [label="T1_(t):event_outcome <= -0.8456\nmse = 0.0009\nsamples = 9039\nvalue = 0.004"] ;
0 -> 1 [labeldistance=2.5, labelangle=45, headlabel="True"] ;
3 [label="T2_(t):xAdjCoord <= 0.0734\nmse = 0.0007\nsamples = 1277\nvalue = -0.0245"] ;
1 -> 3 ;
15 [label="mse = 0.0006\nsamples = 502\nvalue = -0.0137"] ;
3 -> 15 ;
16 [label="mse = 0.0007\nsamples = 775\nvalue = -0.0316"] ;
3 -> 16 ;
4 [label="T1_(t):shot <= 2.2941\nmse = 0.0008\nsamples = 7762\nvalue = 0.0087"] ;
1 -> 4 ;
5 [label="T1_(t):reception <= 0.7124\nmse = 0.0006\nsamples = 7512\nvalue = 0.007"] ;
4 -> 5 ;
11 [label="mse = 0.0007\nsamples = 4948\nvalue = 0.0099"] ;
5 -> 11 ;
12 [label="mse = 0.0004\nsamples = 2564\nvalue = 0.0015"] ;
5 -> 12 ;
6 [label="T1_(t):angel2gate <= 0.1614\nmse = 0.0024\nsamples = 250\nvalue = 0.059"] ;
4 -> 6 ;
17 [label="mse = 0.0025\nsamples = 83\nvalue = 0.084"] ;
6 -> 17 ;
18 [label="mse = 0.0019\nsamples = 167\nvalue = 0.0465"] ;
6 -> 18 ;
2 [label="T2_(t-1):angel2gate <= -0.6543\nmse = 0.0183\nsamples = 39\nvalue = 0.295"] ;
0 -> 2 [labeldistance=2.5, labelangle=-45, headlabel="False"] ;
7 [label="mse = 0.0127\nsamples = 7\nvalue = 0.142"] ;
2 -> 7 ;
8 [label="T5_(t):dumpin <= -0.0815\nmse = 0.0133\nsamples = 32\nvalue = 0.3284"] ;
2 -> 8 ;
9 [label="T6_(t):velocity_y <= -0.3018\nmse = 0.01\nsamples = 28\nvalue = 0.3044"] ;
8 -> 9 ;
13 [label="mse = 0.0045\nsamples = 4\nvalue = 0.4629"] ;
9 -> 13 ;
14 [label="mse = 0.006\nsamples = 24\nvalue = 0.278"] ;
9 -> 14 ;
10 [label="mse = 0.0036\nsamples = 4\nvalue = 0.4967"] ;
8 -> 10 ;
}