digraph Tree {
node [shape=box] ;
0 [label="X[5] <= 6.941\nmse = 84.4196\nsamples = 506\nvalue = 22.5328"] ;
1 [label="X[12] <= 14.4\nmse = 40.2728\nsamples = 430\nvalue = 19.9337"] ;
0 -> 1 [labeldistance=2.5, labelangle=45, headlabel="True"] ;
3 [label="X[7] <= 1.3849\nmse = 26.0087\nsamples = 255\nvalue = 23.3498"] ;
1 -> 3 ;
7 [label="mse = 78.1456\nsamples = 5\nvalue = 45.58"] ;
3 -> 7 ;
8 [label="X[5] <= 6.543\nmse = 14.8847\nsamples = 250\nvalue = 22.9052"] ;
3 -> 8 ;
9 [label="mse = 8.3901\nsamples = 195\nvalue = 21.6297"] ;
8 -> 9 ;
10 [label="mse = 11.694\nsamples = 55\nvalue = 27.4273"] ;
8 -> 10 ;
4 [label="X[4] <= 0.607\nmse = 19.2757\nsamples = 175\nvalue = 14.956"] ;
1 -> 4 ;
11 [label="mse = 12.2539\nsamples = 68\nvalue = 18.1235"] ;
4 -> 11 ;
12 [label="mse = 13.3097\nsamples = 107\nvalue = 12.943"] ;
4 -> 12 ;
2 [label="X[5] <= 7.437\nmse = 79.7292\nsamples = 76\nvalue = 37.2382"] ;
0 -> 2 [labeldistance=2.5, labelangle=-45, headlabel="False"] ;
5 [label="X[0] <= 7.3934\nmse = 41.2959\nsamples = 46\nvalue = 32.113"] ;
2 -> 5 ;
13 [label="mse = 20.1109\nsamples = 43\nvalue = 33.3488"] ;
5 -> 13 ;
14 [label="mse = 9.3067\nsamples = 3\nvalue = 14.4"] ;
5 -> 14 ;
6 [label="mse = 36.6283\nsamples = 30\nvalue = 45.0967"] ;
2 -> 6 ;
}